digraph Tree {
node [shape=box, style="rounded", color="black", fontname="helvetica"] ;
edge [fontname="helvetica"] ;
0 [label="gillSpacing <= 0.5\ngini = 0.5\nsamples = 3864\nvalue = [3044, 3051]"] ;
1 [label="habitat <= 0.5\ngini = 0.5\nsamples = 3232\nvalue = [2180, 2969]"] ;
0 -> 1 [labeldistance=2.5, labelangle=45, headlabel="True"] ;
2 [label="capSurface <= 1.0\ngini = 0.5\nsamples = 1430\nvalue = [1371, 909]"] ;
1 -> 2 ;
3 [label="gini = 0.4\nsamples = 591\nvalue = [694, 249]"] ;
2 -> 3 ;
4 [label="capSurface <= 2.5\ngini = 0.5\nsamples = 839\nvalue = [677, 660]"] ;
2 -> 4 ;
5 [label="gini = 0.0\nsamples = 155\nvalue = [0, 230]"] ;
4 -> 5 ;
6 [label="gini = 0.5\nsamples = 684\nvalue = [677, 430]"] ;
4 -> 6 ;
7 [label="habitat <= 5.5\ngini = 0.4\nsamples = 1802\nvalue = [809, 2060]"] ;
1 -> 7 ;
8 [label="capSurface <= 2.5\ngini = 0.4\nsamples = 1704\nvalue = [663, 2060]"] ;
7 -> 8 ;
9 [label="capSurface <= 1.0\ngini = 0.3\nsamples = 895\nvalue = [248, 1162]"] ;
8 -> 9 ;
10 [label="habitat <= 4.5\ngini = 0.2\nsamples = 247\nvalue = [52, 321]"] ;
9 -> 10 ;
11 [label="gini = 0.0\nsamples = 213\nvalue = [0, 321]"] ;
10 -> 11 ;
12 [label="gini = 0.0\nsamples = 34\nvalue = [52, 0]"] ;
10 -> 12 ;
13 [label="habitat <= 3.5\ngini = 0.3\nsamples = 648\nvalue = [196, 841]"] ;
9 -> 13 ;
14 [label="habitat <= 2.5\ngini = 0.4\nsamples = 383\nvalue = [185, 421]"] ;
13 -> 14 ;
15 [label="habitat <= 1.5\ngini = 0.3\nsamples = 317\nvalue = [81, 421]"] ;
14 -> 15 ;
16 [label="gini = 0.4\nsamples = 164\nvalue = [81, 179]"] ;
15 -> 16 ;
17 [label="gini = 0.0\nsamples = 153\nvalue = [0, 242]"] ;
15 -> 17 ;
18 [label="gini = 0.0\nsamples = 66\nvalue = [104, 0]"] ;
14 -> 18 ;
19 [label="habitat <= 4.5\ngini = 0.0\nsamples = 265\nvalue = [11, 420]"] ;
13 -> 19 ;
20 [label="gini = 0.1\nsamples = 160\nvalue = [11, 231]"] ;
19 -> 20 ;
21 [label="gini = 0.0\nsamples = 105\nvalue = [0, 189]"] ;
19 -> 21 ;
22 [label="habitat <= 3.5\ngini = 0.4\nsamples = 809\nvalue = [415, 898]"] ;
8 -> 22 ;
23 [label="habitat <= 2.5\ngini = 0.5\nsamples = 474\nvalue = [315, 444]"] ;
22 -> 23 ;
24 [label="habitat <= 1.5\ngini = 0.4\nsamples = 401\nvalue = [196, 444]"] ;
23 -> 24 ;
25 [label="gini = 0.5\nsamples = 256\nvalue = [196, 211]"] ;
24 -> 25 ;
26 [label="gini = 0.0\nsamples = 145\nvalue = [0, 233]"] ;
24 -> 26 ;
27 [label="gini = 0.0\nsamples = 73\nvalue = [119, 0]"] ;
23 -> 27 ;
28 [label="habitat <= 4.5\ngini = 0.3\nsamples = 335\nvalue = [100, 454]"] ;
22 -> 28 ;
29 [label="gini = 0.3\nsamples = 301\nvalue = [100, 400]"] ;
28 -> 29 ;
30 [label="gini = 0.0\nsamples = 34\nvalue = [0, 54]"] ;
28 -> 30 ;
31 [label="gini = 0.0\nsamples = 98\nvalue = [146, 0]"] ;
7 -> 31 ;
32 [label="habitat <= 0.5\ngini = 0.2\nsamples = 632\nvalue = [864, 82]"] ;
0 -> 32 [labeldistance=2.5, labelangle=-45, headlabel="False"] ;
33 [label="capSurface <= 1.0\ngini = 0.4\nsamples = 76\nvalue = [28, 81]"] ;
32 -> 33 ;
34 [label="gini = 0.4\nsamples = 39\nvalue = [14, 44]"] ;
33 -> 34 ;
35 [label="gini = 0.4\nsamples = 37\nvalue = [14, 37]"] ;
33 -> 35 ;
36 [label="capSurface <= 2.5\ngini = 0.0\nsamples = 556\nvalue = [836, 1]"] ;
32 -> 36 ;
37 [label="gini = 0.0\nsamples = 550\nvalue = [829, 0]"] ;
36 -> 37 ;
38 [label="gini = 0.2\nsamples = 6\nvalue = [7, 1]"] ;
36 -> 38 ;
}