digraph Tree {
node [shape=box, style="rounded", color="black", fontname="helvetica"] ;
edge [fontname="helvetica"] ;
0 [label="habitat <= 1.5\ngini = 0.5\nsamples = 3890\nvalue = [3090, 3005]"] ;
1 [label="habitat <= 0.5\ngini = 0.5\nsamples = 2613\nvalue = [2547, 1527]"] ;
0 -> 1 [labeldistance=2.5, labelangle=45, headlabel="True"] ;
2 [label="capSurface <= 1.0\ngini = 0.5\nsamples = 1533\nvalue = [1427, 960]"] ;
1 -> 2 ;
3 [label="gini = 0.4\nsamples = 643\nvalue = [708, 273]"] ;
2 -> 3 ;
4 [label="capSurface <= 2.5\ngini = 0.5\nsamples = 890\nvalue = [719, 687]"] ;
2 -> 4 ;
5 [label="gini = 0.1\nsamples = 202\nvalue = [24, 294]"] ;
4 -> 5 ;
6 [label="gini = 0.5\nsamples = 688\nvalue = [695, 393]"] ;
4 -> 6 ;
7 [label="stalkRoot <= 0.5\ngini = 0.4\nsamples = 1080\nvalue = [1120, 567]"] ;
1 -> 7 ;
8 [label="capSurface <= 2.5\ngini = 0.4\nsamples = 437\nvalue = [230, 459]"] ;
7 -> 8 ;
9 [label="capSurface <= 1.0\ngini = 0.5\nsamples = 329\nvalue = [230, 296]"] ;
8 -> 9 ;
10 [label="gini = 0.5\nsamples = 170\nvalue = [103, 166]"] ;
9 -> 10 ;
11 [label="gini = 0.5\nsamples = 159\nvalue = [127, 130]"] ;
9 -> 11 ;
12 [label="gini = 0.0\nsamples = 108\nvalue = [0, 163]"] ;
8 -> 12 ;
13 [label="capSurface <= 2.5\ngini = 0.2\nsamples = 643\nvalue = [890, 108]"] ;
7 -> 13 ;
14 [label="stalkRoot <= 1.5\ngini = 0.1\nsamples = 498\nvalue = [719, 52]"] ;
13 -> 14 ;
15 [label="gini = 0.0\nsamples = 65\nvalue = [101, 0]"] ;
14 -> 15 ;
16 [label="capSurface <= 1.0\ngini = 0.1\nsamples = 433\nvalue = [618, 52]"] ;
14 -> 16 ;
17 [label="gini = 0.0\nsamples = 202\nvalue = [310, 0]"] ;
16 -> 17 ;
18 [label="gini = 0.2\nsamples = 231\nvalue = [308, 52]"] ;
16 -> 18 ;
19 [label="stalkRoot <= 1.5\ngini = 0.4\nsamples = 145\nvalue = [171, 56]"] ;
13 -> 19 ;
20 [label="gini = 0.0\nsamples = 66\nvalue = [105, 0]"] ;
19 -> 20 ;
21 [label="stalkRoot <= 2.5\ngini = 0.5\nsamples = 79\nvalue = [66, 56]"] ;
19 -> 21 ;
22 [label="gini = 0.0\nsamples = 36\nvalue = [0, 56]"] ;
21 -> 22 ;
23 [label="gini = 0.0\nsamples = 43\nvalue = [66, 0]"] ;
21 -> 23 ;
24 [label="capSurface <= 2.5\ngini = 0.4\nsamples = 1277\nvalue = [543, 1478]"] ;
0 -> 24 [labeldistance=2.5, labelangle=-45, headlabel="False"] ;
25 [label="stalkRoot <= 0.5\ngini = 0.4\nsamples = 674\nvalue = [270, 800]"] ;
24 -> 25 ;
26 [label="habitat <= 5.5\ngini = 0.2\nsamples = 451\nvalue = [81, 624]"] ;
25 -> 26 ;
27 [label="habitat <= 4.5\ngini = 0.0\nsamples = 411\nvalue = [16, 624]"] ;
26 -> 27 ;
28 [label="habitat <= 3.0\ngini = 0.1\nsamples = 328\nvalue = [16, 491]"] ;
27 -> 28 ;
29 [label="capSurface <= 1.0\ngini = 0.1\nsamples = 106\nvalue = [6, 144]"] ;
28 -> 29 ;
30 [label="gini = 0.0\nsamples = 4\nvalue = [6, 0]"] ;
29 -> 30 ;
31 [label="gini = 0.0\nsamples = 102\nvalue = [0, 144]"] ;
29 -> 31 ;
32 [label="capSurface <= 1.0\ngini = 0.1\nsamples = 222\nvalue = [10, 347]"] ;
28 -> 32 ;
33 [label="gini = 0.0\nsamples = 114\nvalue = [0, 183]"] ;
32 -> 33 ;
34 [label="gini = 0.1\nsamples = 108\nvalue = [10, 164]"] ;
32 -> 34 ;
35 [label="gini = 0.0\nsamples = 83\nvalue = [0, 133]"] ;
27 -> 35 ;
36 [label="gini = 0.0\nsamples = 40\nvalue = [65, 0]"] ;
26 -> 36 ;
37 [label="stalkRoot <= 1.5\ngini = 0.5\nsamples = 223\nvalue = [189, 176]"] ;
25 -> 37 ;
38 [label="gini = 0.0\nsamples = 66\nvalue = [109, 0]"] ;
37 -> 38 ;
39 [label="capSurface <= 1.0\ngini = 0.4\nsamples = 157\nvalue = [80, 176]"] ;
37 -> 39 ;
40 [label="gini = 0.0\nsamples = 35\nvalue = [55, 0]"] ;
39 -> 40 ;
41 [label="habitat <= 5.5\ngini = 0.2\nsamples = 122\nvalue = [25, 176]"] ;
39 -> 41 ;
42 [label="gini = 0.0\nsamples = 109\nvalue = [0, 176]"] ;
41 -> 42 ;
43 [label="gini = 0.0\nsamples = 13\nvalue = [25, 0]"] ;
41 -> 43 ;
44 [label="stalkRoot <= 0.5\ngini = 0.4\nsamples = 603\nvalue = [273, 678]"] ;
24 -> 44 ;
45 [label="habitat <= 5.0\ngini = 0.2\nsamples = 395\nvalue = [73, 555]"] ;
44 -> 45 ;
46 [label="habitat <= 3.0\ngini = 0.1\nsamples = 363\nvalue = [23, 555]"] ;
45 -> 46 ;
47 [label="gini = 0.1\nsamples = 121\nvalue = [16, 185]"] ;
46 -> 47 ;
48 [label="gini = 0.0\nsamples = 242\nvalue = [7, 370]"] ;
46 -> 48 ;
49 [label="gini = 0.0\nsamples = 32\nvalue = [50, 0]"] ;
45 -> 49 ;
50 [label="stalkRoot <= 1.5\ngini = 0.5\nsamples = 208\nvalue = [200, 123]"] ;
44 -> 50 ;
51 [label="gini = 0.0\nsamples = 66\nvalue = [103, 0]"] ;
50 -> 51 ;
52 [label="habitat <= 3.0\ngini = 0.5\nsamples = 142\nvalue = [97, 123]"] ;
50 -> 52 ;
53 [label="gini = 0.0\nsamples = 19\nvalue = [0, 28]"] ;
52 -> 53 ;
54 [label="stalkRoot <= 2.5\ngini = 0.5\nsamples = 123\nvalue = [97, 95]"] ;
52 -> 54 ;
55 [label="habitat <= 5.5\ngini = 0.3\nsamples = 67\nvalue = [17, 95]"] ;
54 -> 55 ;
56 [label="gini = 0.0\nsamples = 58\nvalue = [0, 95]"] ;
55 -> 56 ;
57 [label="gini = 0.0\nsamples = 9\nvalue = [17, 0]"] ;
55 -> 57 ;
58 [label="gini = 0.0\nsamples = 56\nvalue = [80, 0]"] ;
54 -> 58 ;
}