digraph Tree {
node [shape=box, style="rounded", color="black", fontname="helvetica"] ;
edge [fontname="helvetica"] ;
0 [label="habitat <= 1.5\ngini = 0.5\nsamples = 3857\nvalue = [3031, 3064]"] ;
1 [label="gillSpacing <= 0.5\ngini = 0.5\nsamples = 2574\nvalue = [2527, 1541]"] ;
0 -> 1 [labeldistance=2.5, labelangle=45, headlabel="True"] ;
2 [label="capSurface <= 1.0\ngini = 0.5\nsamples = 1979\nvalue = [1664, 1458]"] ;
1 -> 2 ;
3 [label="habitat <= 0.5\ngini = 0.5\nsamples = 665\nvalue = [689, 367]"] ;
2 -> 3 ;
4 [label="gini = 0.4\nsamples = 569\nvalue = [689, 215]"] ;
3 -> 4 ;
5 [label="gini = 0.0\nsamples = 96\nvalue = [0, 152]"] ;
3 -> 5 ;
6 [label="capSurface <= 2.5\ngini = 0.5\nsamples = 1314\nvalue = [975, 1091]"] ;
2 -> 6 ;
7 [label="habitat <= 0.5\ngini = 0.3\nsamples = 344\nvalue = [99, 461]"] ;
6 -> 7 ;
8 [label="gini = 0.0\nsamples = 174\nvalue = [0, 281]"] ;
7 -> 8 ;
9 [label="gini = 0.5\nsamples = 170\nvalue = [99, 180]"] ;
7 -> 9 ;
10 [label="habitat <= 0.5\ngini = 0.5\nsamples = 970\nvalue = [876, 630]"] ;
6 -> 10 ;
11 [label="gini = 0.5\nsamples = 714\nvalue = [710, 413]"] ;
10 -> 11 ;
12 [label="gini = 0.5\nsamples = 256\nvalue = [166, 217]"] ;
10 -> 12 ;
13 [label="capSurface <= 1.0\ngini = 0.2\nsamples = 595\nvalue = [863, 83]"] ;
1 -> 13 ;
14 [label="habitat <= 0.5\ngini = 0.1\nsamples = 289\nvalue = [437, 29]"] ;
13 -> 14 ;
15 [label="gini = 0.5\nsamples = 30\nvalue = [22, 29]"] ;
14 -> 15 ;
16 [label="gini = 0.0\nsamples = 259\nvalue = [415, 0]"] ;
14 -> 16 ;
17 [label="habitat <= 0.5\ngini = 0.2\nsamples = 306\nvalue = [426, 54]"] ;
13 -> 17 ;
18 [label="gini = 0.3\nsamples = 44\nvalue = [15, 54]"] ;
17 -> 18 ;
19 [label="gini = 0.0\nsamples = 262\nvalue = [411, 0]"] ;
17 -> 19 ;
20 [label="habitat <= 5.5\ngini = 0.4\nsamples = 1283\nvalue = [504, 1523]"] ;
0 -> 20 [labeldistance=2.5, labelangle=-45, headlabel="False"] ;
21 [label="capSurface <= 1.0\ngini = 0.3\nsamples = 1189\nvalue = [366, 1523]"] ;
20 -> 21 ;
22 [label="gillSpacing <= 0.5\ngini = 0.4\nsamples = 150\nvalue = [64, 166]"] ;
21 -> 22 ;
23 [label="habitat <= 4.5\ngini = 0.4\nsamples = 141\nvalue = [51, 166]"] ;
22 -> 23 ;
24 [label="gini = 0.0\nsamples = 107\nvalue = [0, 166]"] ;
23 -> 24 ;
25 [label="gini = 0.0\nsamples = 34\nvalue = [51, 0]"] ;
23 -> 25 ;
26 [label="gini = 0.0\nsamples = 9\nvalue = [13, 0]"] ;
22 -> 26 ;
27 [label="gillSpacing <= 0.5\ngini = 0.3\nsamples = 1039\nvalue = [302, 1357]"] ;
21 -> 27 ;
28 [label="capSurface <= 2.5\ngini = 0.3\nsamples = 1033\nvalue = [294, 1353]"] ;
27 -> 28 ;
29 [label="habitat <= 3.5\ngini = 0.2\nsamples = 492\nvalue = [113, 659]"] ;
28 -> 29 ;
30 [label="habitat <= 2.5\ngini = 0.4\nsamples = 227\nvalue = [107, 246]"] ;
29 -> 30 ;
31 [label="gini = 0.0\nsamples = 156\nvalue = [0, 246]"] ;
30 -> 31 ;
32 [label="gini = 0.0\nsamples = 71\nvalue = [107, 0]"] ;
30 -> 32 ;
33 [label="habitat <= 4.5\ngini = 0.0\nsamples = 265\nvalue = [6, 413]"] ;
29 -> 33 ;
34 [label="gini = 0.0\nsamples = 151\nvalue = [6, 239]"] ;
33 -> 34 ;
35 [label="gini = 0.0\nsamples = 114\nvalue = [0, 174]"] ;
33 -> 35 ;
36 [label="habitat <= 2.5\ngini = 0.3\nsamples = 541\nvalue = [181, 694]"] ;
28 -> 36 ;
37 [label="gini = 0.0\nsamples = 152\nvalue = [0, 243]"] ;
36 -> 37 ;
38 [label="habitat <= 3.5\ngini = 0.4\nsamples = 389\nvalue = [181, 451]"] ;
36 -> 38 ;
39 [label="gini = 0.0\nsamples = 49\nvalue = [84, 0]"] ;
38 -> 39 ;
40 [label="habitat <= 4.5\ngini = 0.3\nsamples = 340\nvalue = [97, 451]"] ;
38 -> 40 ;
41 [label="gini = 0.3\nsamples = 304\nvalue = [97, 397]"] ;
40 -> 41 ;
42 [label="gini = 0.0\nsamples = 36\nvalue = [0, 54]"] ;
40 -> 42 ;
43 [label="gini = 0.4\nsamples = 6\nvalue = [8, 4]"] ;
27 -> 43 ;
44 [label="gini = 0.0\nsamples = 94\nvalue = [138, 0]"] ;
20 -> 44 ;
}