digraph Tree {
node [shape=box, style="rounded", color="black", fontname="helvetica"] ;
edge [fontname="helvetica"] ;
0 [label="gillSpacing <= 0.5\ngini = 0.5\nsamples = 3866\nvalue = [3014, 3081]"] ;
1 [label="habitat <= 0.5\ngini = 0.5\nsamples = 3264\nvalue = [2144, 3005]"] ;
0 -> 1 [labeldistance=2.5, labelangle=45, headlabel="True"] ;
2 [label="capSurface <= 1.0\ngini = 0.5\nsamples = 1439\nvalue = [1420, 864]"] ;
1 -> 2 ;
3 [label="gini = 0.4\nsamples = 552\nvalue = [699, 205]"] ;
2 -> 3 ;
4 [label="capSurface <= 2.5\ngini = 0.5\nsamples = 887\nvalue = [721, 659]"] ;
2 -> 4 ;
5 [label="gini = 0.0\nsamples = 174\nvalue = [0, 263]"] ;
4 -> 5 ;
6 [label="stalkRoot <= 1.0\ngini = 0.5\nsamples = 713\nvalue = [721, 396]"] ;
4 -> 6 ;
7 [label="gini = 0.4\nsamples = 687\nvalue = [721, 352]"] ;
6 -> 7 ;
8 [label="gini = 0.0\nsamples = 26\nvalue = [0, 44]"] ;
6 -> 8 ;
9 [label="stalkRoot <= 0.5\ngini = 0.4\nsamples = 1825\nvalue = [724, 2141]"] ;
1 -> 9 ;
10 [label="habitat <= 5.5\ngini = 0.2\nsamples = 1042\nvalue = [155, 1513]"] ;
9 -> 10 ;
11 [label="habitat <= 3.0\ngini = 0.0\nsamples = 948\nvalue = [14, 1513]"] ;
10 -> 11 ;
12 [label="gini = 0.0\nsamples = 458\nvalue = [0, 743]"] ;
11 -> 12 ;
13 [label="habitat <= 4.5\ngini = 0.0\nsamples = 490\nvalue = [14, 770]"] ;
11 -> 13 ;
14 [label="capSurface <= 1.0\ngini = 0.0\nsamples = 409\nvalue = [14, 642]"] ;
13 -> 14 ;
15 [label="gini = 0.0\nsamples = 111\nvalue = [0, 177]"] ;
14 -> 15 ;
16 [label="capSurface <= 2.5\ngini = 0.1\nsamples = 298\nvalue = [14, 465]"] ;
14 -> 16 ;
17 [label="gini = 0.1\nsamples = 92\nvalue = [8, 136]"] ;
16 -> 17 ;
18 [label="gini = 0.0\nsamples = 206\nvalue = [6, 329]"] ;
16 -> 18 ;
19 [label="gini = 0.0\nsamples = 81\nvalue = [0, 128]"] ;
13 -> 19 ;
20 [label="gini = 0.0\nsamples = 94\nvalue = [141, 0]"] ;
10 -> 20 ;
21 [label="habitat <= 1.5\ngini = 0.5\nsamples = 783\nvalue = [569, 628]"] ;
9 -> 21 ;
22 [label="capSurface <= 2.5\ngini = 0.4\nsamples = 248\nvalue = [258, 111]"] ;
21 -> 22 ;
23 [label="stalkRoot <= 1.5\ngini = 0.5\nsamples = 93\nvalue = [93, 58]"] ;
22 -> 23 ;
24 [label="gini = 0.0\nsamples = 57\nvalue = [93, 0]"] ;
23 -> 24 ;
25 [label="gini = 0.0\nsamples = 36\nvalue = [0, 58]"] ;
23 -> 25 ;
26 [label="stalkRoot <= 2.5\ngini = 0.4\nsamples = 155\nvalue = [165, 53]"] ;
22 -> 26 ;
27 [label="stalkRoot <= 1.5\ngini = 0.5\nsamples = 99\nvalue = [82, 53]"] ;
26 -> 27 ;
28 [label="gini = 0.0\nsamples = 63\nvalue = [82, 0]"] ;
27 -> 28 ;
29 [label="gini = 0.0\nsamples = 36\nvalue = [0, 53]"] ;
27 -> 29 ;
30 [label="gini = 0.0\nsamples = 56\nvalue = [83, 0]"] ;
26 -> 30 ;
31 [label="habitat <= 2.5\ngini = 0.5\nsamples = 535\nvalue = [311, 517]"] ;
21 -> 31 ;
32 [label="gini = 0.0\nsamples = 135\nvalue = [0, 213]"] ;
31 -> 32 ;
33 [label="stalkRoot <= 1.5\ngini = 0.5\nsamples = 400\nvalue = [311, 304]"] ;
31 -> 33 ;
34 [label="gini = 0.0\nsamples = 117\nvalue = [174, 0]"] ;
33 -> 34 ;
35 [label="stalkRoot <= 2.5\ngini = 0.4\nsamples = 283\nvalue = [137, 304]"] ;
33 -> 35 ;
36 [label="capSurface <= 1.0\ngini = 0.2\nsamples = 229\nvalue = [52, 304]"] ;
35 -> 36 ;
37 [label="gini = 0.0\nsamples = 30\nvalue = [52, 0]"] ;
36 -> 37 ;
38 [label="gini = 0.0\nsamples = 199\nvalue = [0, 304]"] ;
36 -> 38 ;
39 [label="gini = 0.0\nsamples = 54\nvalue = [85, 0]"] ;
35 -> 39 ;
40 [label="stalkRoot <= 1.0\ngini = 0.1\nsamples = 602\nvalue = [870, 76]"] ;
0 -> 40 [labeldistance=2.5, labelangle=-45, headlabel="False"] ;
41 [label="habitat <= 0.5\ngini = 0.3\nsamples = 214\nvalue = [268, 76]"] ;
40 -> 41 ;
42 [label="capSurface <= 1.0\ngini = 0.4\nsamples = 64\nvalue = [32, 74]"] ;
41 -> 42 ;
43 [label="gini = 0.5\nsamples = 35\nvalue = [21, 36]"] ;
42 -> 43 ;
44 [label="gini = 0.3\nsamples = 29\nvalue = [11, 38]"] ;
42 -> 44 ;
45 [label="capSurface <= 2.5\ngini = 0.0\nsamples = 150\nvalue = [236, 2]"] ;
41 -> 45 ;
46 [label="gini = 0.0\nsamples = 142\nvalue = [226, 0]"] ;
45 -> 46 ;
47 [label="gini = 0.3\nsamples = 8\nvalue = [10, 2]"] ;
45 -> 47 ;
48 [label="gini = 0.0\nsamples = 388\nvalue = [602, 0]"] ;
40 -> 48 ;
}